digraph Tree {
node [shape=box, style="filled, rounded", color="black", fontname="helvetica"] ;
edge [fontname="helvetica"] ;
0 [label="Age <= 11.5\ngini = 0.552\nsamples = 161\nvalue = [97, 41, 23]\nclass = Easy", fillcolor="#f3c4a3"] ;
1 [label="Age <= 2.5\ngini = 0.512\nsamples = 22\nvalue = [6, 14, 2]\nclass = Hard", fillcolor="#9cf2c0"] ;
0 -> 1 [labeldistance=2.5, labelangle=45, headlabel="True"] ;
2 [label="gini = 0.0\nsamples = 5\nvalue = [0, 5, 0]\nclass = Hard", fillcolor="#39e581"] ;
1 -> 2 ;
3 [label="Age <= 5.5\ngini = 0.581\nsamples = 17\nvalue = [6, 9, 2]\nclass = Hard", fillcolor="#c9f8dd"] ;
1 -> 3 ;
4 [label="Race <= 0.5\ngini = 0.56\nsamples = 5\nvalue = [3, 1, 1]\nclass = Easy", fillcolor="#f2c09c"] ;
3 -> 4 ;
5 [label="gini = 0.0\nsamples = 3\nvalue = [3, 0, 0]\nclass = Easy", fillcolor="#e58139"] ;
4 -> 5 ;
6 [label="Continent <= 2.0\ngini = 0.5\nsamples = 2\nvalue = [0, 1, 1]\nclass = Hard", fillcolor="#ffffff"] ;
4 -> 6 ;
7 [label="gini = 0.0\nsamples = 1\nvalue = [0, 0, 1]\nclass = Medium", fillcolor="#8139e5"] ;
6 -> 7 ;
8 [label="gini = 0.0\nsamples = 1\nvalue = [0, 1, 0]\nclass = Hard", fillcolor="#39e581"] ;
6 -> 8 ;
9 [label="Age <= 7.5\ngini = 0.486\nsamples = 12\nvalue = [3, 8, 1]\nclass = Hard", fillcolor="#91f1b9"] ;
3 -> 9 ;
10 [label="gini = 0.0\nsamples = 4\nvalue = [0, 4, 0]\nclass = Hard", fillcolor="#39e581"] ;
9 -> 10 ;
11 [label="Age <= 10.5\ngini = 0.594\nsamples = 8\nvalue = [3, 4, 1]\nclass = Hard", fillcolor="#d7fae6"] ;
9 -> 11 ;
12 [label="Continent <= 1.0\ngini = 0.48\nsamples = 5\nvalue = [3, 2, 0]\nclass = Easy", fillcolor="#f6d5bd"] ;
11 -> 12 ;
13 [label="gini = 0.0\nsamples = 2\nvalue = [2, 0, 0]\nclass = Easy", fillcolor="#e58139"] ;
12 -> 13 ;
14 [label="Year Missing <= 2003.0\ngini = 0.444\nsamples = 3\nvalue = [1, 2, 0]\nclass = Hard", fillcolor="#9cf2c0"] ;
12 -> 14 ;
15 [label="gini = 0.0\nsamples = 2\nvalue = [0, 2, 0]\nclass = Hard", fillcolor="#39e581"] ;
14 -> 15 ;
16 [label="gini = 0.0\nsamples = 1\nvalue = [1, 0, 0]\nclass = Easy", fillcolor="#e58139"] ;
14 -> 16 ;
17 [label="Race <= 0.5\ngini = 0.444\nsamples = 3\nvalue = [0, 2, 1]\nclass = Hard", fillcolor="#9cf2c0"] ;
11 -> 17 ;
18 [label="gini = 0.0\nsamples = 2\nvalue = [0, 2, 0]\nclass = Hard", fillcolor="#39e581"] ;
17 -> 18 ;
19 [label="gini = 0.0\nsamples = 1\nvalue = [0, 0, 1]\nclass = Medium", fillcolor="#8139e5"] ;
17 -> 19 ;
20 [label="Age <= 41.5\ngini = 0.511\nsamples = 139\nvalue = [91.0, 27.0, 21.0]\nclass = Easy", fillcolor="#f0b78e"] ;
0 -> 20 [labeldistance=2.5, labelangle=-45, headlabel="False"] ;
21 [label="Year Missing <= 2012.5\ngini = 0.578\nsamples = 83\nvalue = [47.0, 23.0, 13.0]\nclass = Easy", fillcolor="#f5cdb0"] ;
20 -> 21 ;
22 [label="Race <= 0.5\ngini = 0.622\nsamples = 67\nvalue = [32, 23, 12]\nclass = Easy", fillcolor="#fae5d6"] ;
21 -> 22 ;
23 [label="Continent <= 1.0\ngini = 0.47\nsamples = 31\nvalue = [21, 8, 2]\nclass = Easy", fillcolor="#f0b88f"] ;
22 -> 23 ;
24 [label="Year Missing <= 1998.5\ngini = 0.496\nsamples = 11\nvalue = [5, 6, 0]\nclass = Hard", fillcolor="#defbea"] ;
23 -> 24 ;
25 [label="Year Missing <= 1977.0\ngini = 0.32\nsamples = 5\nvalue = [1, 4, 0]\nclass = Hard", fillcolor="#6aeca0"] ;
24 -> 25 ;
26 [label="Age <= 22.0\ngini = 0.5\nsamples = 2\nvalue = [1, 1, 0]\nclass = Easy", fillcolor="#ffffff"] ;
25 -> 26 ;
27 [label="gini = 0.0\nsamples = 1\nvalue = [1, 0, 0]\nclass = Easy", fillcolor="#e58139"] ;
26 -> 27 ;
28 [label="gini = 0.0\nsamples = 1\nvalue = [0, 1, 0]\nclass = Hard", fillcolor="#39e581"] ;
26 -> 28 ;
29 [label="gini = 0.0\nsamples = 3\nvalue = [0, 3, 0]\nclass = Hard", fillcolor="#39e581"] ;
25 -> 29 ;
30 [label="Year Missing <= 2002.5\ngini = 0.444\nsamples = 6\nvalue = [4, 2, 0]\nclass = Easy", fillcolor="#f2c09c"] ;
24 -> 30 ;
31 [label="gini = 0.0\nsamples = 3\nvalue = [3, 0, 0]\nclass = Easy", fillcolor="#e58139"] ;
30 -> 31 ;
32 [label="Year Missing <= 2004.5\ngini = 0.444\nsamples = 3\nvalue = [1, 2, 0]\nclass = Hard", fillcolor="#9cf2c0"] ;
30 -> 32 ;
33 [label="gini = 0.0\nsamples = 2\nvalue = [0, 2, 0]\nclass = Hard", fillcolor="#39e581"] ;
32 -> 33 ;
34 [label="gini = 0.0\nsamples = 1\nvalue = [1, 0, 0]\nclass = Easy", fillcolor="#e58139"] ;
32 -> 34 ;
35 [label="Year Missing <= 2009.5\ngini = 0.34\nsamples = 20\nvalue = [16, 2, 2]\nclass = Easy", fillcolor="#eb9d65"] ;
23 -> 35 ;
36 [label="Continent <= 3.5\ngini = 0.124\nsamples = 15\nvalue = [14, 0, 1]\nclass = Easy", fillcolor="#e78a47"] ;
35 -> 36 ;
37 [label="gini = 0.0\nsamples = 11\nvalue = [11, 0, 0]\nclass = Easy", fillcolor="#e58139"] ;
36 -> 37 ;
38 [label="Year Missing <= 1986.5\ngini = 0.375\nsamples = 4\nvalue = [3, 0, 1]\nclass = Easy", fillcolor="#eeab7b"] ;
36 -> 38 ;
39 [label="Age <= 33.5\ngini = 0.5\nsamples = 2\nvalue = [1, 0, 1]\nclass = Easy", fillcolor="#ffffff"] ;
38 -> 39 ;
40 [label="gini = 0.0\nsamples = 1\nvalue = [1, 0, 0]\nclass = Easy", fillcolor="#e58139"] ;
39 -> 40 ;
41 [label="gini = 0.0\nsamples = 1\nvalue = [0, 0, 1]\nclass = Medium", fillcolor="#8139e5"] ;
39 -> 41 ;
42 [label="gini = 0.0\nsamples = 2\nvalue = [2, 0, 0]\nclass = Easy", fillcolor="#e58139"] ;
38 -> 42 ;
43 [label="Age <= 33.5\ngini = 0.64\nsamples = 5\nvalue = [2, 2, 1]\nclass = Easy", fillcolor="#ffffff"] ;
35 -> 43 ;
44 [label="gini = 0.0\nsamples = 2\nvalue = [2, 0, 0]\nclass = Easy", fillcolor="#e58139"] ;
43 -> 44 ;
45 [label="Age <= 37.5\ngini = 0.444\nsamples = 3\nvalue = [0, 2, 1]\nclass = Hard", fillcolor="#9cf2c0"] ;
43 -> 45 ;
46 [label="gini = 0.0\nsamples = 2\nvalue = [0, 2, 0]\nclass = Hard", fillcolor="#39e581"] ;
45 -> 46 ;
47 [label="gini = 0.0\nsamples = 1\nvalue = [0, 0, 1]\nclass = Medium", fillcolor="#8139e5"] ;
45 -> 47 ;
48 [label="Continent <= 0.5\ngini = 0.656\nsamples = 36\nvalue = [11, 15, 10]\nclass = Hard", fillcolor="#dffbeb"] ;
22 -> 48 ;
49 [label="Race <= 3.5\ngini = 0.48\nsamples = 5\nvalue = [3, 0, 2]\nclass = Easy", fillcolor="#f6d5bd"] ;
48 -> 49 ;
50 [label="Year Missing <= 2006.5\ngini = 0.375\nsamples = 4\nvalue = [3, 0, 1]\nclass = Easy", fillcolor="#eeab7b"] ;
49 -> 50 ;
51 [label="gini = 0.0\nsamples = 3\nvalue = [3, 0, 0]\nclass = Easy", fillcolor="#e58139"] ;
50 -> 51 ;
52 [label="gini = 0.0\nsamples = 1\nvalue = [0, 0, 1]\nclass = Medium", fillcolor="#8139e5"] ;
50 -> 52 ;
53 [label="gini = 0.0\nsamples = 1\nvalue = [0, 0, 1]\nclass = Medium", fillcolor="#8139e5"] ;
49 -> 53 ;
54 [label="Age <= 20.5\ngini = 0.633\nsamples = 31\nvalue = [8, 15, 8]\nclass = Hard", fillcolor="#c3f7d9"] ;
48 -> 54 ;
55 [label="Age <= 13.5\ngini = 0.245\nsamples = 7\nvalue = [1, 6, 0]\nclass = Hard", fillcolor="#5ae996"] ;
54 -> 55 ;
56 [label="gini = 0.0\nsamples = 1\nvalue = [1, 0, 0]\nclass = Easy", fillcolor="#e58139"] ;
55 -> 56 ;
57 [label="gini = 0.0\nsamples = 6\nvalue = [0, 6, 0]\nclass = Hard", fillcolor="#39e581"] ;
55 -> 57 ;
58 [label="Race <= 1.5\ngini = 0.663\nsamples = 24\nvalue = [7, 9, 8]\nclass = Hard", fillcolor="#f3fdf7"] ;
54 -> 58 ;
59 [label="Year Missing <= 1990.5\ngini = 0.375\nsamples = 4\nvalue = [1, 0, 3]\nclass = Medium", fillcolor="#ab7bee"] ;
58 -> 59 ;
60 [label="gini = 0.0\nsamples = 3\nvalue = [0, 0, 3]\nclass = Medium", fillcolor="#8139e5"] ;
59 -> 60 ;
61 [label="gini = 0.0\nsamples = 1\nvalue = [1, 0, 0]\nclass = Easy", fillcolor="#e58139"] ;
59 -> 61 ;
62 [label="Age <= 25.0\ngini = 0.645\nsamples = 20\nvalue = [6, 9, 5]\nclass = Hard", fillcolor="#d5f9e4"] ;
58 -> 62 ;
63 [label="Gender <= 0.5\ngini = 0.444\nsamples = 3\nvalue = [2, 0, 1]\nclass = Easy", fillcolor="#f2c09c"] ;
62 -> 63 ;
64 [label="gini = 0.0\nsamples = 1\nvalue = [1, 0, 0]\nclass = Easy", fillcolor="#e58139"] ;
63 -> 64 ;
65 [label="Year Missing <= 1976.5\ngini = 0.5\nsamples = 2\nvalue = [1, 0, 1]\nclass = Easy", fillcolor="#ffffff"] ;
63 -> 65 ;
66 [label="gini = 0.0\nsamples = 1\nvalue = [1, 0, 0]\nclass = Easy", fillcolor="#e58139"] ;
65 -> 66 ;
67 [label="gini = 0.0\nsamples = 1\nvalue = [0, 0, 1]\nclass = Medium", fillcolor="#8139e5"] ;
65 -> 67 ;
68 [label="Age <= 27.5\ngini = 0.609\nsamples = 17\nvalue = [4, 9, 4]\nclass = Hard", fillcolor="#b3f5cf"] ;
62 -> 68 ;
69 [label="gini = 0.0\nsamples = 3\nvalue = [0, 3, 0]\nclass = Hard", fillcolor="#39e581"] ;
68 -> 69 ;
70 [label="Year Missing <= 1979.5\ngini = 0.653\nsamples = 14\nvalue = [4, 6, 4]\nclass = Hard", fillcolor="#d7fae6"] ;
68 -> 70 ;
71 [label="Continent <= 2.5\ngini = 0.444\nsamples = 3\nvalue = [2, 1, 0]\nclass = Easy", fillcolor="#f2c09c"] ;
70 -> 71 ;
72 [label="gini = 0.0\nsamples = 2\nvalue = [2, 0, 0]\nclass = Easy", fillcolor="#e58139"] ;
71 -> 72 ;
73 [label="gini = 0.0\nsamples = 1\nvalue = [0, 1, 0]\nclass = Hard", fillcolor="#39e581"] ;
71 -> 73 ;
74 [label="Race <= 2.5\ngini = 0.628\nsamples = 11\nvalue = [2, 5, 4]\nclass = Hard", fillcolor="#e3fbed"] ;
70 -> 74 ;
75 [label="Continent <= 3.5\ngini = 0.611\nsamples = 6\nvalue = [2, 1, 3]\nclass = Medium", fillcolor="#e0cef8"] ;
74 -> 75 ;
76 [label="gini = 0.0\nsamples = 2\nvalue = [0, 0, 2]\nclass = Medium", fillcolor="#8139e5"] ;
75 -> 76 ;
77 [label="Age <= 31.5\ngini = 0.625\nsamples = 4\nvalue = [2, 1, 1]\nclass = Easy", fillcolor="#f6d5bd"] ;
75 -> 77 ;
78 [label="gini = 0.0\nsamples = 1\nvalue = [0, 0, 1]\nclass = Medium", fillcolor="#8139e5"] ;
77 -> 78 ;
79 [label="Age <= 37.0\ngini = 0.444\nsamples = 3\nvalue = [2, 1, 0]\nclass = Easy", fillcolor="#f2c09c"] ;
77 -> 79 ;
80 [label="gini = 0.0\nsamples = 1\nvalue = [1, 0, 0]\nclass = Easy", fillcolor="#e58139"] ;
79 -> 80 ;
81 [label="Year Missing <= 2009.0\ngini = 0.5\nsamples = 2\nvalue = [1, 1, 0]\nclass = Easy", fillcolor="#ffffff"] ;
79 -> 81 ;
82 [label="gini = 0.0\nsamples = 1\nvalue = [0, 1, 0]\nclass = Hard", fillcolor="#39e581"] ;
81 -> 82 ;
83 [label="gini = 0.0\nsamples = 1\nvalue = [1, 0, 0]\nclass = Easy", fillcolor="#e58139"] ;
81 -> 83 ;
84 [label="Year Missing <= 2000.5\ngini = 0.32\nsamples = 5\nvalue = [0, 4, 1]\nclass = Hard", fillcolor="#6aeca0"] ;
74 -> 84 ;
85 [label="Year Missing <= 1998.5\ngini = 0.5\nsamples = 2\nvalue = [0, 1, 1]\nclass = Hard", fillcolor="#ffffff"] ;
84 -> 85 ;
86 [label="gini = 0.0\nsamples = 1\nvalue = [0, 1, 0]\nclass = Hard", fillcolor="#39e581"] ;
85 -> 86 ;
87 [label="gini = 0.0\nsamples = 1\nvalue = [0, 0, 1]\nclass = Medium", fillcolor="#8139e5"] ;
85 -> 87 ;
88 [label="gini = 0.0\nsamples = 3\nvalue = [0, 3, 0]\nclass = Hard", fillcolor="#39e581"] ;
84 -> 88 ;
89 [label="Age <= 32.0\ngini = 0.117\nsamples = 16\nvalue = [15, 0, 1]\nclass = Easy", fillcolor="#e78946"] ;
21 -> 89 ;
90 [label="gini = 0.0\nsamples = 14\nvalue = [14, 0, 0]\nclass = Easy", fillcolor="#e58139"] ;
89 -> 90 ;
91 [label="Year Missing <= 2019.5\ngini = 0.5\nsamples = 2\nvalue = [1, 0, 1]\nclass = Easy", fillcolor="#ffffff"] ;
89 -> 91 ;
92 [label="gini = 0.0\nsamples = 1\nvalue = [0, 0, 1]\nclass = Medium", fillcolor="#8139e5"] ;
91 -> 92 ;
93 [label="gini = 0.0\nsamples = 1\nvalue = [1, 0, 0]\nclass = Easy", fillcolor="#e58139"] ;
91 -> 93 ;
94 [label="Continent <= 2.5\ngini = 0.357\nsamples = 56\nvalue = [44, 4, 8]\nclass = Easy", fillcolor="#eca06b"] ;
20 -> 94 ;
95 [label="Year Missing <= 2002.5\ngini = 0.185\nsamples = 29\nvalue = [26, 3, 0]\nclass = Easy", fillcolor="#e89050"] ;
94 -> 95 ;
96 [label="gini = 0.0\nsamples = 14\nvalue = [14, 0, 0]\nclass = Easy", fillcolor="#e58139"] ;
95 -> 96 ;
97 [label="Year Missing <= 2003.5\ngini = 0.32\nsamples = 15\nvalue = [12, 3, 0]\nclass = Easy", fillcolor="#eca06a"] ;
95 -> 97 ;
98 [label="gini = 0.0\nsamples = 1\nvalue = [0, 1, 0]\nclass = Hard", fillcolor="#39e581"] ;
97 -> 98 ;
99 [label="Age <= 46.5\ngini = 0.245\nsamples = 14\nvalue = [12, 2, 0]\nclass = Easy", fillcolor="#e9965a"] ;
97 -> 99 ;
100 [label="gini = 0.0\nsamples = 1\nvalue = [0, 1, 0]\nclass = Hard", fillcolor="#39e581"] ;
99 -> 100 ;
101 [label="Continent <= 1.5\ngini = 0.142\nsamples = 13\nvalue = [12, 1, 0]\nclass = Easy", fillcolor="#e78c49"] ;
99 -> 101 ;
102 [label="gini = 0.0\nsamples = 7\nvalue = [7, 0, 0]\nclass = Easy", fillcolor="#e58139"] ;
101 -> 102 ;
103 [label="Age <= 58.0\ngini = 0.278\nsamples = 6\nvalue = [5, 1, 0]\nclass = Easy", fillcolor="#ea9a61"] ;
101 -> 103 ;
104 [label="Year Missing <= 2012.5\ngini = 0.444\nsamples = 3\nvalue = [2, 1, 0]\nclass = Easy", fillcolor="#f2c09c"] ;
103 -> 104 ;
105 [label="gini = 0.0\nsamples = 1\nvalue = [0, 1, 0]\nclass = Hard", fillcolor="#39e581"] ;
104 -> 105 ;
106 [label="gini = 0.0\nsamples = 2\nvalue = [2, 0, 0]\nclass = Easy", fillcolor="#e58139"] ;
104 -> 106 ;
107 [label="gini = 0.0\nsamples = 3\nvalue = [3, 0, 0]\nclass = Easy", fillcolor="#e58139"] ;
103 -> 107 ;
108 [label="Year Missing <= 2018.0\ngini = 0.466\nsamples = 27\nvalue = [18, 1, 8]\nclass = Easy", fillcolor="#f1bd97"] ;
94 -> 108 ;
109 [label="Year Missing <= 2004.5\ngini = 0.422\nsamples = 25\nvalue = [18, 1, 6]\nclass = Easy", fillcolor="#efaf82"] ;
108 -> 109 ;
110 [label="Race <= 1.5\ngini = 0.569\nsamples = 12\nvalue = [6, 1, 5]\nclass = Easy", fillcolor="#fbede3"] ;
109 -> 110 ;
111 [label="Age <= 46.0\ngini = 0.531\nsamples = 8\nvalue = [2, 1, 5]\nclass = Medium", fillcolor="#c09cf2"] ;
110 -> 111 ;
112 [label="Race <= 0.5\ngini = 0.444\nsamples = 3\nvalue = [2, 0, 1]\nclass = Easy", fillcolor="#f2c09c"] ;
111 -> 112 ;
113 [label="gini = 0.0\nsamples = 2\nvalue = [2, 0, 0]\nclass = Easy", fillcolor="#e58139"] ;
112 -> 113 ;
114 [label="gini = 0.0\nsamples = 1\nvalue = [0, 0, 1]\nclass = Medium", fillcolor="#8139e5"] ;
112 -> 114 ;
115 [label="Year Missing <= 1986.0\ngini = 0.32\nsamples = 5\nvalue = [0, 1, 4]\nclass = Medium", fillcolor="#a06aec"] ;
111 -> 115 ;
116 [label="Age <= 51.5\ngini = 0.5\nsamples = 2\nvalue = [0, 1, 1]\nclass = Hard", fillcolor="#ffffff"] ;
115 -> 116 ;
117 [label="gini = 0.0\nsamples = 1\nvalue = [0, 0, 1]\nclass = Medium", fillcolor="#8139e5"] ;
116 -> 117 ;
118 [label="gini = 0.0\nsamples = 1\nvalue = [0, 1, 0]\nclass = Hard", fillcolor="#39e581"] ;
116 -> 118 ;
119 [label="gini = 0.0\nsamples = 3\nvalue = [0, 0, 3]\nclass = Medium", fillcolor="#8139e5"] ;
115 -> 119 ;
120 [label="gini = 0.0\nsamples = 4\nvalue = [4, 0, 0]\nclass = Easy", fillcolor="#e58139"] ;
110 -> 120 ;
121 [label="Continent <= 3.5\ngini = 0.142\nsamples = 13\nvalue = [12, 0, 1]\nclass = Easy", fillcolor="#e78c49"] ;
109 -> 121 ;
122 [label="Age <= 63.5\ngini = 0.444\nsamples = 3\nvalue = [2, 0, 1]\nclass = Easy", fillcolor="#f2c09c"] ;
121 -> 122 ;
123 [label="gini = 0.5\nsamples = 2\nvalue = [1, 0, 1]\nclass = Easy", fillcolor="#ffffff"] ;
122 -> 123 ;
124 [label="gini = 0.0\nsamples = 1\nvalue = [1, 0, 0]\nclass = Easy", fillcolor="#e58139"] ;
122 -> 124 ;
125 [label="gini = 0.0\nsamples = 10\nvalue = [10, 0, 0]\nclass = Easy", fillcolor="#e58139"] ;
121 -> 125 ;
126 [label="gini = 0.0\nsamples = 2\nvalue = [0, 0, 2]\nclass = Medium", fillcolor="#8139e5"] ;
108 -> 126 ;
}